<?xml version="1.0"?>
<MethodSetup Method="MLP::GlobalTHReco_BFGS">
  <GeneralInfo>
    <Info name="TMVA Release" value="4.2.0 [262656]"/>
    <Info name="ROOT Release" value="5.34/11 [336395]"/>
    <Info name="Creator" value="aapopov"/>
    <Info name="Date" value="Mon May 19 13:20:12 2014"/>
    <Info name="Host" value="Linux lxbuild175.cern.ch 2.6.18-308.4.1.el5 #1 SMP Wed Apr 18 16:26:27 CEST 2012 x86_64 x86_64 x86_64 GNU/Linux"/>
    <Info name="Dir" value="/afs/cern.ch/work/a/aapopov/public/tHq/2012Bravo/2014.05.19_New-MVA/tHq/Train"/>
    <Info name="Training events" value="28234"/>
    <Info name="TrainingTime" value="1.73745028e+03"/>
    <Info name="AnalysisType" value="Classification"/>
  </GeneralInfo>
  <Options>
    <Option name="NCycles" modified="Yes">500</Option>
    <Option name="HiddenLayers" modified="Yes">30</Option>
    <Option name="NeuronType" modified="Yes">tanh</Option>
    <Option name="RandomSeed" modified="No">1</Option>
    <Option name="EstimatorType" modified="No">MSE</Option>
    <Option name="NeuronInputType" modified="No">sum</Option>
    <Option name="V" modified="No">False</Option>
    <Option name="VerbosityLevel" modified="No">Default</Option>
    <Option name="VarTransform" modified="Yes">N</Option>
    <Option name="H" modified="No">False</Option>
    <Option name="CreateMVAPdfs" modified="No">False</Option>
    <Option name="IgnoreNegWeightsInTraining" modified="No">False</Option>
    <Option name="TrainingMethod" modified="Yes">BFGS</Option>
    <Option name="LearningRate" modified="No">2.000000e-02</Option>
    <Option name="DecayRate" modified="No">1.000000e-02</Option>
    <Option name="TestRate" modified="Yes">5</Option>
    <Option name="EpochMonitoring" modified="No">False</Option>
    <Option name="Sampling" modified="No">1.000000e+00</Option>
    <Option name="SamplingEpoch" modified="No">1.000000e+00</Option>
    <Option name="SamplingImportance" modified="No">1.000000e+00</Option>
    <Option name="SamplingTraining" modified="No">True</Option>
    <Option name="SamplingTesting" modified="No">False</Option>
    <Option name="ResetStep" modified="No">50</Option>
    <Option name="Tau" modified="No">3.000000e+00</Option>
    <Option name="BPMode" modified="No">sequential</Option>
    <Option name="BatchSize" modified="No">-1</Option>
    <Option name="ConvergenceImprove" modified="No">1.000000e-30</Option>
    <Option name="ConvergenceTests" modified="No">-1</Option>
    <Option name="UseRegulator" modified="No">False</Option>
    <Option name="UpdateLimit" modified="No">10000</Option>
    <Option name="CalculateErrors" modified="No">False</Option>
    <Option name="WeightRange" modified="No">1.000000e+00</Option>
  </Options>
  <Variables NVar="12">
    <Variable VarIndex="0" Expression="log(Mass_Higgs)" Label="log(Mass_Higgs)" Title="log(Mass_Higgs)" Unit="" Internal="log_Mass_Higgs_" Type="F" Min="2.99358702e+00" Max="7.29685068e+00"/>
    <Variable VarIndex="1" Expression="log(Mass_BTopLep)" Label="log(Mass_BTopLep)" Title="log(Mass_BTopLep)" Unit="" Internal="log_Mass_BTopLep_" Type="F" Min="2.23882985e+00" Max="6.85611868e+00"/>
    <Variable VarIndex="2" Expression="abs(Eta_Recoil)" Label="abs(Eta_Recoil)" Title="abs(Eta_Recoil)" Unit="" Internal="abs_Eta_Recoil_" Type="F" Min="1.26775500e-04" Max="3.50000000e+00"/>
    <Variable VarIndex="3" Expression="PassBTag_BTop" Label="PassBTag_BTop" Title="PassBTag_BTop" Unit="" Internal="PassBTag_BTop" Type="F" Min="0.00000000e+00" Max="1.00000000e+00"/>
    <Variable VarIndex="4" Expression="NumBTag_Higgs" Label="NumBTag_Higgs" Title="NumBTag_Higgs" Unit="" Internal="NumBTag_Higgs" Type="F" Min="0.00000000e+00" Max="2.00000000e+00"/>
    <Variable VarIndex="5" Expression="DeltaR_BJetsHiggs" Label="DeltaR_BJetsHiggs" Title="DeltaR_BJetsHiggs" Unit="" Internal="DeltaR_BJetsHiggs" Type="F" Min="5.02757430e-01" Max="5.52255011e+00"/>
    <Variable VarIndex="6" Expression="DeltaR_BTopW" Label="DeltaR_BTopW" Title="DeltaR_BTopW" Unit="" Internal="DeltaR_BTopW" Type="F" Min="2.95460913e-02" Max="6.87251616e+00"/>
    <Variable VarIndex="7" Expression="DeltaR_TopHiggs" Label="DeltaR_TopHiggs" Title="DeltaR_TopHiggs" Unit="" Internal="DeltaR_TopHiggs" Type="F" Min="4.09084782e-02" Max="7.71872330e+00"/>
    <Variable VarIndex="8" Expression="RelHt" Label="RelHt" Title="RelHt" Unit="" Internal="RelHt" Type="F" Min="1.07523307e-01" Max="9.97177958e-01"/>
    <Variable VarIndex="9" Expression="MaxEta_BHiggs" Label="MaxEta_BHiggs" Title="MaxEta_BHiggs" Unit="" Internal="MaxEta_BHiggs" Type="F" Min="9.23656952e-03" Max="2.39965701e+00"/>
    <Variable VarIndex="10" Expression="log(MinPt_BHiggs)" Label="log(MinPt_BHiggs)" Title="log(MinPt_BHiggs)" Unit="" Internal="log_MinPt_BHiggs_" Type="F" Min="2.99618745e+00" Max="5.90750933e+00"/>
    <Variable VarIndex="11" Expression="Charge_BTop" Label="Charge_BTop" Title="Charge_BTop" Unit="" Internal="Charge_BTop" Type="F" Min="-9.98740196e-01" Max="1.00000000e+00"/>
  </Variables>
  <Spectators NSpec="0"/>
  <Classes NClass="2">
    <Class Name="Signal" Index="0"/>
    <Class Name="Background" Index="1"/>
  </Classes>
  <Transformations NTransformations="1">
    <Transform Name="Normalize">
      <Selection>
        <Input NInputs="12">
          <Input Type="Variable" Label="log(Mass_Higgs)" Expression="log(Mass_Higgs)"/>
          <Input Type="Variable" Label="log(Mass_BTopLep)" Expression="log(Mass_BTopLep)"/>
          <Input Type="Variable" Label="abs(Eta_Recoil)" Expression="abs(Eta_Recoil)"/>
          <Input Type="Variable" Label="PassBTag_BTop" Expression="PassBTag_BTop"/>
          <Input Type="Variable" Label="NumBTag_Higgs" Expression="NumBTag_Higgs"/>
          <Input Type="Variable" Label="DeltaR_BJetsHiggs" Expression="DeltaR_BJetsHiggs"/>
          <Input Type="Variable" Label="DeltaR_BTopW" Expression="DeltaR_BTopW"/>
          <Input Type="Variable" Label="DeltaR_TopHiggs" Expression="DeltaR_TopHiggs"/>
          <Input Type="Variable" Label="RelHt" Expression="RelHt"/>
          <Input Type="Variable" Label="MaxEta_BHiggs" Expression="MaxEta_BHiggs"/>
          <Input Type="Variable" Label="log(MinPt_BHiggs)" Expression="log(MinPt_BHiggs)"/>
          <Input Type="Variable" Label="Charge_BTop" Expression="Charge_BTop"/>
        </Input>
        <Output NOutputs="12">
          <Output Type="Variable" Label="log(Mass_Higgs)" Expression="log(Mass_Higgs)"/>
          <Output Type="Variable" Label="log(Mass_BTopLep)" Expression="log(Mass_BTopLep)"/>
          <Output Type="Variable" Label="abs(Eta_Recoil)" Expression="abs(Eta_Recoil)"/>
          <Output Type="Variable" Label="PassBTag_BTop" Expression="PassBTag_BTop"/>
          <Output Type="Variable" Label="NumBTag_Higgs" Expression="NumBTag_Higgs"/>
          <Output Type="Variable" Label="DeltaR_BJetsHiggs" Expression="DeltaR_BJetsHiggs"/>
          <Output Type="Variable" Label="DeltaR_BTopW" Expression="DeltaR_BTopW"/>
          <Output Type="Variable" Label="DeltaR_TopHiggs" Expression="DeltaR_TopHiggs"/>
          <Output Type="Variable" Label="RelHt" Expression="RelHt"/>
          <Output Type="Variable" Label="MaxEta_BHiggs" Expression="MaxEta_BHiggs"/>
          <Output Type="Variable" Label="log(MinPt_BHiggs)" Expression="log(MinPt_BHiggs)"/>
          <Output Type="Variable" Label="Charge_BTop" Expression="Charge_BTop"/>
        </Output>
      </Selection>
      <Class ClassIndex="0">
        <Ranges>
          <Range Index="0" Min="3.8615641593933105e+00" Max="6.2752561569213867e+00"/>
          <Range Index="1" Min="3.0707991123199463e+00" Max="5.9877367019653320e+00"/>
          <Range Index="2" Min="1.2677549966610968e-04" Max="3.5000000000000000e+00"/>
          <Range Index="3" Min="0.0000000000000000e+00" Max="1.0000000000000000e+00"/>
          <Range Index="4" Min="0.0000000000000000e+00" Max="2.0000000000000000e+00"/>
          <Range Index="5" Min="5.0275743007659912e-01" Max="3.9785158634185791e+00"/>
          <Range Index="6" Min="4.2072765529155731e-02" Max="5.5708870887756348e+00"/>
          <Range Index="7" Min="4.0908478200435638e-02" Max="7.7187232971191406e+00"/>
          <Range Index="8" Min="1.0752330720424652e-01" Max="9.9717795848846436e-01"/>
          <Range Index="9" Min="1.6260076314210892e-02" Max="2.3992364406585693e+00"/>
          <Range Index="10" Min="2.9962809085845947e+00" Max="5.4426102638244629e+00"/>
          <Range Index="11" Min="-9.9874019622802734e-01" Max="9.7273272275924683e-01"/>
        </Ranges>
      </Class>
      <Class ClassIndex="1">
        <Ranges>
          <Range Index="0" Min="2.9935870170593262e+00" Max="7.2968506813049316e+00"/>
          <Range Index="1" Min="2.2388298511505127e+00" Max="6.8561186790466309e+00"/>
          <Range Index="2" Min="1.2677549966610968e-04" Max="3.5000000000000000e+00"/>
          <Range Index="3" Min="0.0000000000000000e+00" Max="1.0000000000000000e+00"/>
          <Range Index="4" Min="0.0000000000000000e+00" Max="2.0000000000000000e+00"/>
          <Range Index="5" Min="5.2170002460479736e-01" Max="5.5225501060485840e+00"/>
          <Range Index="6" Min="2.9546091333031654e-02" Max="6.8725161552429199e+00"/>
          <Range Index="7" Min="5.5727858096361160e-02" Max="7.3495812416076660e+00"/>
          <Range Index="8" Min="1.0798497498035431e-01" Max="9.8813760280609131e-01"/>
          <Range Index="9" Min="9.2365695163607597e-03" Max="2.3996570110321045e+00"/>
          <Range Index="10" Min="2.9961874485015869e+00" Max="5.9075093269348145e+00"/>
          <Range Index="11" Min="-9.9643999338150024e-01" Max="1.0000000000000000e+00"/>
        </Ranges>
      </Class>
      <Class ClassIndex="2">
        <Ranges>
          <Range Index="0" Min="2.9935870170593262e+00" Max="7.2968506813049316e+00"/>
          <Range Index="1" Min="2.2388298511505127e+00" Max="6.8561186790466309e+00"/>
          <Range Index="2" Min="1.2677549966610968e-04" Max="3.5000000000000000e+00"/>
          <Range Index="3" Min="0.0000000000000000e+00" Max="1.0000000000000000e+00"/>
          <Range Index="4" Min="0.0000000000000000e+00" Max="2.0000000000000000e+00"/>
          <Range Index="5" Min="5.0275743007659912e-01" Max="5.5225501060485840e+00"/>
          <Range Index="6" Min="2.9546091333031654e-02" Max="6.8725161552429199e+00"/>
          <Range Index="7" Min="4.0908478200435638e-02" Max="7.7187232971191406e+00"/>
          <Range Index="8" Min="1.0752330720424652e-01" Max="9.9717795848846436e-01"/>
          <Range Index="9" Min="9.2365695163607597e-03" Max="2.3996570110321045e+00"/>
          <Range Index="10" Min="2.9961874485015869e+00" Max="5.9075093269348145e+00"/>
          <Range Index="11" Min="-9.9874019622802734e-01" Max="1.0000000000000000e+00"/>
        </Ranges>
      </Class>
    </Transform>
  </Transformations>
  <MVAPdfs/>
  <Weights>
    <Layout NLayers="3">
      <Layer Index="0" NNeurons="13">
        <Neuron NSynapses="30">
          4.4023031871163432e-01 1.5435975631990513e+00 1.4199006700942929e+00 1.6012022025664485e+00 -1.8739011675774300e+00 -1.1966101383389787e+00 -1.0516220916070957e+00 2.4177868901972488e+00 -1.9459637368842708e+00 -1.0565947636290945e+01 -9.4768817007950423e-01 -1.6994171323356422e+00 -3.7271645451094084e+00 1.0733163157885106e+00 -1.6526462111213587e+00 6.8136381793610212e-01 -4.2410481172881759e-01 2.7887251336386818e+00 3.7877399088440727e-01 1.7587711728457440e+00 -7.1304074450587274e-01 -4.0435486041553703e-01 1.5046348059522423e+00 -2.0369390656578190e+00 -1.5021145843341430e+00 -3.0303739487027370e-01 7.4339662972703584e+00 -1.8243790332279913e-01 -1.6842047719488149e+00 6.4385654663979319e-01 
        </Neuron>
        <Neuron NSynapses="30">
          4.3553849014272471e-02 1.1912228017107662e+00 -1.5392988188989948e-01 -6.3659232114896169e-01 2.0322133707669099e-01 -1.6452799026791896e+00 -2.0810603440037774e+00 1.9224492199378220e+00 -2.7598236303193127e+00 -1.7660977623646017e+00 1.7322139757211816e+00 3.0487850049190226e+00 3.7284011631676548e+00 2.8417623139308135e+00 -4.2751860391380148e-01 -1.6568406403599125e+00 6.3213136821261218e-01 3.2137801661662124e-01 2.2052217829580840e+00 1.5074422932356624e+00 1.7272720018345649e+00 1.1041249294923833e+01 -1.5907644167692643e+00 -4.4473139229153008e-01 -2.4794575291144310e+00 -9.9066269518256633e-01 -1.2731442832108009e+00 -2.7662990054553731e+00 1.5382794613590915e+00 3.0252902339421173e-01 
        </Neuron>
        <Neuron NSynapses="30">
          -9.3932316182279529e-01 4.3242110716233173e-01 -1.1588704405034072e+00 5.6357652315488060e-01 1.5449204406084369e+00 -1.8181688361521345e-01 3.6646150697245422e-01 -8.6078057153404641e-01 1.9887451814850514e+00 1.4974832285098766e-01 -1.7788275771736952e+00 -6.4998768177783450e-01 2.6992237211574271e-01 6.2173211439334986e-01 3.6562892247030437e-01 4.9304558887726868e-01 -2.0562022759326486e+00 -2.2297452375873030e+00 3.1162269854199005e+00 2.5985177955367594e-01 2.1638081750215297e+00 2.1518706220512860e-02 -2.9506266369444772e-01 -4.1529199385168014e-01 -4.2796462555400872e-01 -8.0298235219744585e-01 2.1298554259491223e-01 -1.1586803727908384e+00 -1.3320710719178541e+00 -9.6635753747698550e-01 
        </Neuron>
        <Neuron NSynapses="30">
          -6.9207551850912541e-01 1.9545623209298646e-01 1.5664536680107615e+00 -2.0138032279278009e+00 1.4910969389699957e-01 2.9000125699643537e+00 1.7591718712121268e-01 -1.1093467771942465e+00 -7.4393767090204077e-01 1.8968422605731117e-01 -4.9866598700241949e-01 -6.0072081265878252e-01 2.5519002993954382e-01 3.3733787108440277e-01 -3.9999586834559125e-01 5.4317503197491090e-01 -2.3394969339695746e+00 -1.4112898997409355e+00 4.1955514758137968e-04 -5.0307398635177003e-01 -1.2764001548756843e+00 -1.4629513515678863e-01 6.4000125305877162e-02 -3.6876821792408226e-01 -1.8471609579741968e+00 7.5341878185190914e-01 2.2146059407440388e-01 -2.3090761590533020e-02 1.7014245473272178e+00 -1.5833381991048532e+00 
        </Neuron>
        <Neuron NSynapses="30">
          -1.2329406244118712e+00 -6.7450492141569163e-01 -3.4736841162887466e-01 1.3068530661186830e+00 1.0766472743074409e+00 -1.2325328536603959e-02 -4.3530758402509823e-01 -2.0764234633370390e-01 -8.1063718211541558e-01 2.5670060587008381e-01 2.5119864982879297e-01 -1.0824471777120011e+00 5.3839168086725098e-01 5.8388924132459874e-01 1.7491059860666222e-01 1.8937921927491186e-01 1.3329025600228617e+00 -2.3045878435666460e+00 -1.1660190443497737e-01 8.6229744735283498e-01 1.2421604491011402e+00 -1.7698231865317252e-01 -9.8664103654070334e-01 -8.4128738393327807e-01 -2.4568558169868018e+00 2.5619792008826816e+00 3.3075410172630304e-01 4.7685502658192880e-01 5.1206493889067051e-01 2.9859205942707412e-01 
        </Neuron>
        <Neuron NSynapses="30">
          -7.9109746007381732e-01 6.0863378130395140e-01 1.8146685262845548e+00 -8.1157069953164329e-01 -7.1001454923095217e-02 -5.8685811169641988e-01 1.9859788662116737e+00 1.1512211319871708e+00 1.3610997861085954e+00 -3.1694089258125635e-01 2.7944918278610265e-01 -5.0598409883990880e-01 -1.6407198549002953e+00 1.9197136861315107e+00 5.0821078142842824e-01 -2.2013100682310611e+00 -6.3263442932875991e-01 3.5854999948777283e-01 6.2438750898138673e-01 -4.6068358209426041e-01 1.0777165985489052e+00 3.7910549220115247e-01 -9.5839959438434730e-01 1.9492591992134183e+00 8.8528216378656699e-01 -1.7605330162551722e+00 -3.0857670279720795e-01 1.0096927048683511e+00 9.3564691137339717e-01 -1.5662143018562231e+00 
        </Neuron>
        <Neuron NSynapses="30">
          -8.0979408130824715e-01 1.3089868641899458e+00 1.0688150969870736e+00 -1.4315837101427074e+00 -7.5682853565147201e-01 -3.6151490033814365e-01 -4.5053100409243631e-03 1.6040374994253117e+00 7.9825032728777989e-01 -2.8149493499969713e-01 -2.1463261105466877e-01 1.0592116852647939e+00 1.4368694769434172e+00 1.5294774812958658e+00 2.9284482343269624e-01 1.2798562138420280e+00 -1.8499089769243997e+00 6.2478026194420155e-01 4.1814599261389673e-01 -1.8134125057570951e+00 -9.2682726530316539e-01 1.3060140274982992e+00 2.5266475298988365e-02 1.8006861285056880e-01 1.3274635625872386e+00 5.9681790103638865e-01 -3.6704444744712234e-01 -3.6594950294798667e-01 9.8430335137754021e-01 1.1294078455918177e+00 
        </Neuron>
        <Neuron NSynapses="30">
          -9.5141300644886562e-01 -3.6039092150387031e-02 -1.7498426385245134e+00 -9.4823075285914127e-01 2.3488803782923728e+00 1.0332836718742362e+00 1.6829791883060436e+00 1.4391377864522101e-01 -1.4415167813878177e-01 2.1184972104792715e-01 -3.0756705704943799e-01 8.0143279081770519e-02 9.4735040730873021e-01 -4.7113997560671872e-01 7.2042877718597720e-01 -7.3190243225342588e-01 6.8948068988347389e-01 2.1222875436429259e-01 -7.9799011102630302e-01 -8.9045550812198693e-01 1.0639116025594997e+00 -2.5880377592443443e-01 1.0649867972503855e+00 -1.6881901769628060e+00 8.3156044200915002e-01 -1.6304512243381988e+00 -1.2288565392503525e-01 6.7215884055615049e-01 -1.5835948506692952e+00 1.0455155904334497e-02 
        </Neuron>
        <Neuron NSynapses="30">
          -1.8875885660582681e+00 -4.7613695300364106e-01 -1.2590956420240664e+00 -9.7812495583224313e-01 -1.1194674094988808e+00 2.0562585716665180e-02 -1.1649761517646737e+00 -1.4045912896471096e+00 7.9672788570078512e-01 4.1285928940631494e-01 1.7590573640997439e-01 -5.3214985628468658e-01 6.8973910138114491e-01 2.1332126541004945e+00 1.8715278946628033e+00 -3.1613461147524990e-01 -1.4224945569575240e+00 -7.9081046677258549e-01 -1.0235145178668223e-01 -1.2907776250842293e+00 5.5654177093978796e-01 1.3112128353202351e-01 2.3249203593422290e+00 -1.0426753299047875e+00 5.9539936905574631e-01 -4.0412536836077417e-01 -1.6148648607888572e-01 6.9881334840751674e-01 9.8573568450222537e-01 -1.2024770138183776e+00 
        </Neuron>
        <Neuron NSynapses="30">
          -2.0059377818941415e-01 1.0330324037620120e+00 8.0808680741637717e-01 6.4489946116210151e-01 2.0678246259248537e-01 -7.5225844236226802e-02 1.0567033070276319e+00 1.5877128369178481e+00 -3.5761368421241807e-02 -9.2559271648618754e-02 9.7826682436611312e-01 1.2713215215664408e-01 -3.9132008455525674e-01 -8.4363486782896333e-02 -3.3044719752352270e-01 5.5982454006942392e-02 -7.9273706612660566e-01 1.0043775907940788e+00 -4.5631576747169639e-02 1.7153195786206228e+00 -1.9702287405930199e+00 3.0269775450864386e-02 -9.4413592744694597e-01 -3.8445937515533507e-01 -5.6477719614953725e-01 -1.7777166404492841e+00 1.4977901454724789e-02 5.4430158044494414e-01 -1.4469572834160409e+00 -1.1996468134241496e+00 
        </Neuron>
        <Neuron NSynapses="30">
          -2.4816859042468797e+00 -8.5739898274529280e-01 1.9614428705730074e+00 -3.8028266455337567e-01 -5.1651033260979728e-01 -4.2885551226726865e-01 -1.1071847530189340e+00 -1.0648627888974551e+00 -1.0932917887012428e+00 3.2325744556317171e-01 4.5453272517749908e-02 -5.8350800508565337e-01 -2.8421763480057338e-01 1.8696753968644586e+00 1.3390600367446426e+00 -1.0424255199013825e+00 1.7219991104897436e+00 -1.4032638602476175e+00 5.5935702721806779e-01 1.1621023643849078e+00 -1.1836204934968821e+00 -9.8006119226896810e-02 1.9443703090663039e-01 -1.6314903180761526e+00 2.5451790922152895e-01 2.0180839041774652e+00 9.1126013673660383e-03 2.2643868552067290e+00 -9.8243780960937765e-01 1.3309283480828746e+00 
        </Neuron>
        <Neuron NSynapses="30">
          -3.2984900102842851e-01 9.0458578855157645e-01 -1.2269623522168842e+00 -2.4573962691806641e+00 -3.8714070638632986e-01 -4.0093784391111087e-01 -4.1156061024393742e-01 1.1615199536245404e+00 1.4766040720206114e-01 -2.8668064087137624e-01 -2.8583982545676212e-01 3.4968111396485535e-01 -5.1557775596655087e-01 1.3822847941628968e-01 4.5623661618366212e-01 -8.0149310826897435e-01 -5.0284313761267074e-01 1.9035709523773653e-01 -3.3728043971043026e-01 -7.9280924857923307e-01 6.5488854256240092e-01 2.2447051093235426e-01 7.9145569368717550e-01 -3.6575046370816301e-02 -9.3266127419113587e-01 -1.4277693765998101e+00 -2.2837003907971909e-01 1.0536028462225597e+00 -5.6589046134673116e-01 -8.9095299163945041e-01 
        </Neuron>
        <Neuron NSynapses="30">
          5.1283584999382703e-01 -1.9843859552057634e+00 -1.2451918842201299e+00 -1.5743670450921639e+00 7.6976158270076500e-01 -1.1290104905852782e+00 -5.8989782250349854e-01 -9.3197166911730356e-01 -1.6823891924483925e+00 -1.1731358619728436e+00 2.3899523055729217e+00 -2.5001952405268453e+00 -3.5271894881650050e-03 2.7888347538287830e+00 -3.9250107971064901e-01 1.8916046002111597e-01 -1.6626928599848959e-01 6.0803161978710329e-01 2.0825329250886324e+00 7.2953799451872958e-01 -6.8817246492401707e-01 -1.8463964353747138e+00 -1.3183892247089473e+00 2.0531439342152917e+00 1.9623938364741789e-01 2.4939166344361707e-01 1.6401615974953452e+00 8.3659646326101955e-01 1.9847962422077212e+00 -1.6741923109195043e+00 
        </Neuron>
      </Layer>
      <Layer Index="1" NNeurons="31">
        <Neuron NSynapses="1">
          9.2262720677107293e-02 
        </Neuron>
        <Neuron NSynapses="1">
          6.1970886225203616e-03 
        </Neuron>
        <Neuron NSynapses="1">
          1.0168297618344958e-02 
        </Neuron>
        <Neuron NSynapses="1">
          -3.2737324196851929e-02 
        </Neuron>
        <Neuron NSynapses="1">
          -4.5044543863942230e-02 
        </Neuron>
        <Neuron NSynapses="1">
          -1.5931172479718880e-01 
        </Neuron>
        <Neuron NSynapses="1">
          7.1527660890675637e-02 
        </Neuron>
        <Neuron NSynapses="1">
          3.2512353196784097e-02 
        </Neuron>
        <Neuron NSynapses="1">
          -9.2229899536448612e-02 
        </Neuron>
        <Neuron NSynapses="1">
          4.0850356261847426e-01 
        </Neuron>
        <Neuron NSynapses="1">
          2.7456340118522639e-02 
        </Neuron>
        <Neuron NSynapses="1">
          1.9890593988537014e-01 
        </Neuron>
        <Neuron NSynapses="1">
          1.7005888662890190e-01 
        </Neuron>
        <Neuron NSynapses="1">
          1.4561403366673825e-01 
        </Neuron>
        <Neuron NSynapses="1">
          -1.3199470644352604e-01 
        </Neuron>
        <Neuron NSynapses="1">
          -9.8662483725016459e-02 
        </Neuron>
        <Neuron NSynapses="1">
          -2.7899167277179400e-02 
        </Neuron>
        <Neuron NSynapses="1">
          -6.0982625403730908e-02 
        </Neuron>
        <Neuron NSynapses="1">
          6.5374087935429689e-02 
        </Neuron>
        <Neuron NSynapses="1">
          -3.0361151354003309e-02 
        </Neuron>
        <Neuron NSynapses="1">
          -2.3406311566122957e-02 
        </Neuron>
        <Neuron NSynapses="1">
          -2.1974286157220813e-01 
        </Neuron>
        <Neuron NSynapses="1">
          4.4556276352417684e-02 
        </Neuron>
        <Neuron NSynapses="1">
          -1.7196095376780868e-01 
        </Neuron>
        <Neuron NSynapses="1">
          -4.2331789166802053e-02 
        </Neuron>
        <Neuron NSynapses="1">
          4.1716135055389097e-02 
        </Neuron>
        <Neuron NSynapses="1">
          4.3649116802642868e-01 
        </Neuron>
        <Neuron NSynapses="1">
          -5.1092402854806186e-02 
        </Neuron>
        <Neuron NSynapses="1">
          4.2515240553537351e-02 
        </Neuron>
        <Neuron NSynapses="1">
          -7.3112653817096862e-02 
        </Neuron>
        <Neuron NSynapses="1">
          -9.3589542997169733e-02 
        </Neuron>
      </Layer>
      <Layer Index="2" NNeurons="1">
        <Neuron NSynapses="0"/>
      </Layer>
    </Layout>
  </Weights>
</MethodSetup>
